{"W1": [[-0.18625575645124304, -0.3730991366850487, 0.9515854116737943, -0.35694541284483505, 0.5968927933983152, -0.5992534944978753, -0.08995300457857924, -0.037686529168559524, -0.8296029391824367, -0.9231179285981788, 0.5138412260147787, -0.01042204352067122, 0.9708788171474629, 0.9805272000288796, 0.8426219988982722, -0.0680552317926999, -0.6668419819750899, 0.5879920029322516, 0.7738083616724638, -0.423745172447606, -0.45735717387117214, -0.1457782896102895, 0.277065113483814, 0.35802996046034385, -0.9131659659832392, -0.5335707725537628, -0.2169889241135019, 0.35766246614962505, -0.7175159281904131, -0.282022964355092, -0.05493856313515999, 0.3887638481696323, -0.029141714531889962, -0.5769103745927313, -0.4937184764016971, 0.8135726984139235, -0.3349132846736693, -0.8928398814544782, -0.21080784907710104, -0.582032826777847, 0.9574026132591151, 0.8411100942228842, -0.9047159086199867, 0.36176380604754765, -0.7596978113111159, -0.6656972599153979, -0.6690169984682535, 0.36376791613255266, 0.6204035270528341, 0.1829625725064028, -0.7752128052507126, 0.17683094461309623, -0.5216370541163506, 0.8247160541247132, -0.8822961842743438, -0.7240297354214247, 0.23604749926149826, 0.6740723628957248, 0.06526472470142042, -0.25951790045534295, 0.8077056530704658, -0.6690674022858305, -0.29040439344929303, -0.8672435976668678, -0.6834372531181563, -0.5856549578486634, -0.42250717539412297, -0.7671302256847072, 0.2747106551505063, 0.5054245573512226, -0.5298549662431595, -0.04560039365813351, -0.8594098404185908, 0.9863622650272483, 0.7292193349817704, 0.7031761123503975, 0.22572344014513068, 0.3615528275488602, 0.2780384607876707, 0.44395685566030885, -0.42753147240377287], [-0.753702034194059, -0.6918168367780122, -0.9418050671973797, 0.30859695686330446, -0.44759818723274547, -0.07955165667030006, -0.948443259725176, 0.25568225935274724, 0.744807044007606, 0.4452172854744718, 0.9249759466688865, -0.2346251334402405, -0.336629566666097, 0.3859583462743761, 0.1198431494204042, 0.880346158115461, -0.1596634914230921, -0.9459809539468849, 0.12536169078286896, -0.9597818901927127, -0.007742061732215033, 0.5002517267247608, 0.7458252282379862, 0.4445888885089768, -0.039062658127674066, 0.9983311982951031, -0.01856645027717385, -0.5753487492473006, 0.09728761867348856, 0.3904366410807605, 0.2538062340470839, 0.18398173773983229, -0.17974629876659876, -0.18275585531031058, 0.5345074406748915, 0.8563884608109165, 0.9223944030275133, -0.11462726589603145, -0.8178297549446705, -0.722197564218668, 0.9328310026634146, 0.8259460143065667, -0.3116040921650505, -0.2500730589066482, -0.837449550120454, -0.07559733482449005, 0.48195677488183053, -0.20144593732760918, -0.12965702728233963, 0.2815496553418799, 0.6400796191823335, 0.3934635139781393, -0.7031695775503835, -0.7772097365452397, -0.8125879626555459, 0.9394512527997843, -0.5772776331983152, 0.3924375806056666, 0.16579108750340632, 0.9634289451734281, -0.9849182241782379, 0.6712610422325249, 0.3683822741070366, -0.3492139757105477, -0.784996264763201, 0.14490441985404412, 0.5429811199250558, -0.534199088037814, -0.671037760319384, 0.08343552428696266, 0.4766328695198847, 0.3483217077948819, 0.7712510439691012, 0.8200451678282077, 0.17004693575471563, 0.1915971427671046, -0.8844956048093668, 0.49816958136547096, 0.47054399096768296, -0.5421006826886301, -0.6591118916604408], [0.1471118033119263, -0.05654980192559922, -0.8275508372872065, 0.894449921846167, 0.1727890985156766, -0.5126280683261868, -0.5123661612046897, 0.8249972342631515, -0.6624583621035367, 0.3319571534041408, 0.9065341134539777, -0.36071269514504345, -0.6022332755796063, 0.39770942492976213, -0.4174041497424774, 0.583970125844844, 0.9206387740791477, -0.7966684162607856, -0.668349794870222, -0.7070589117210131, -0.46315064599418765, 0.8282457043259783, 0.6998316932023216, 0.48150662828557533, -0.9921446943789629, -0.8968433300763516, 0.8068596582034755, 0.9567341975480919, -0.03195992886128196, -0.6982394132252663, -0.5626337612339485, 0.15881013703212798, -0.25715804383292973, -0.16682302312550812, 0.3276176236934667, 0.8085182673702216, -0.9807289059979774, -0.8053364672122598, 0.04082213025183923, -0.6062945008184151, -0.6802040153058742, -0.6997186018161377, 0.7529303219158909, 0.6847834244779918, -0.07682120691176708, 0.1913374850309486, -0.2856404373657895, -0.8013800659661381, 0.44907413559878995, 0.4915701296139008, -0.9110030804598279, -0.3756333445293356, 0.24272799497827346, 0.19319060359022777, -0.3095262483814172, 0.3759744307811488, 0.9497398074804422, -0.3911680417543699, 0.6518550338813192, -0.5812346105678745, -0.2735390191544331, -0.32948638294652244, 0.24368740345069528, -0.020696120407431184, 0.24627650917672494, 0.2840876998192159, -0.8192675127648081, 0.8136111024571862, 0.0591380408966371, 0.5692225773004451, -0.5898611576136399, 0.018959993514658713, 0.42039480911004823, 0.7595293849212559, 0.422282282653734, 0.16080804971477347, -0.714862132885989, -0.11435814739268291, -0.865870179761205, -0.40616487322490324, -0.34832326831399874], [-0.9445911486734222, -0.33020606278551323, -0.7555215209897044, -0.4684718126621932, -0.656706011039309, 0.7816738494960791, 0.7288326789364037, 0.17321662013666295, -0.2014749533517095, -0.740845220799875, 0.7438856469881081, 0.04951702789241885, 0.31545788403508346, -0.5738173696812898, -0.6089740403006496, -0.5818599431857843, 0.0547496548557147, 0.4063102076376741, -0.4134975407084549, -0.40543500466913596, -0.43128261601287754, -0.5747136739336509, -0.9481651469676722, -0.9640977968645921, 0.08269693988477433, 0.18001274211385354, 0.6671791074359679, 0.3494467963997121, -0.6252397838379329, 0.1663113367197595, 0.5363087219212819, 0.6487807651674582, 0.7829552692558326, 0.07853611207197297, 0.4423126919923053, 0.8070937520219024, -0.2741730670173592, 0.914973185451915, 0.26843970176160203, -0.9029326975057725, -0.4814737361637049, 0.7254454585372472, -0.9722066306408901, -0.163240665843563, 0.23031142344257738, 0.18091241986335538, -0.3288768367179502, -0.1631359043379066, 0.10632151355894948, 0.07437415606338127, -0.8643295938177502, 0.13780534503423092, -0.8719432104450013, 0.31389218248600614, 0.14676843823446228, -0.5534185059189074, 0.7075850306449163, -0.588653240284331, -0.8463188070856846, -0.6459025956740463, -0.8258934120863011, -0.12088257968199145, -0.5407696279636987, 0.26595775339495353, -0.9038330972273771, -0.5160892265164321, 0.4566296703789823, -0.4642916125056724, -0.47499894439294743, 0.3999480706734555, -0.4370059959900321, -0.787837058034448, 0.14715470905034667, -0.6029799666962863, -0.5084128344495036, 0.32600960534467216, -0.6808237698278663, -0.03190585798036194, -0.5486908406690412, 0.1789830807768642, 0.7761751962562735], [-0.7950786247769475, -0.36070538636028204, -0.1098173733427954, 0.11117448304662414, -0.054298358143340275, 0.6070477576213185, 0.7711289191457171, 0.7303380673408024, -0.8204942595183891, -0.9045407622214587, -0.3584787298913603, 0.6625792226352287, 0.7741892627611411, -0.9394690895150124, 0.5133577213874494, -0.6101658687913074, -0.22160090581633973, 0.19470416639715848, 0.3774317997973715, 0.9831355998245683, -0.5052235956180899, -0.022481330365513363, -0.013061523457752022, -0.8369702879559584, 0.49623048032789274, 0.6901011120309417, 0.9205074860794664, 0.4127321978640097, -0.47033362725843997, -0.8525301959442397, 0.21110292512244766, -0.6014583693307647, 0.6228242124169927, 0.2854990454502824, -0.025260852617137175, 0.597604462599377, 0.9049066527453535, 0.7793134487663127, 0.01916257521264475, -0.7181569098448608, 0.5826483004643048, -0.1648038082708838, 0.9031014358534211, -0.4999730377794347, -0.9580897905492534, 0.5173186186904666, 0.8961444902259481, 0.2730540816509446, -0.798328478600852, 0.14393759202114076, 0.39632474319141564, 0.23854163720763988, 0.6908658322819259, -0.877817932871336, 0.5295802628206578, 0.9512470816662539, 0.5421905926044037, -0.8624459144113608, -0.47024889789605173, 0.8688838463325368, 0.881957829588647, 0.5136745971633971, 0.3885636158585799, 0.5356043381913671, -0.7409823919099512, 0.853581593599225, -0.09534630886045936, -0.3376913021573684, 0.49803845989882745, -0.20566353912948676, 0.8112506212478492, 0.4185690996905962, 0.25795780264775137, -0.6419770234698923, 0.3427546769032659, -0.8270160442845964, -0.0393311745389604, -0.4863508924675457, 0.34503379230631137, -0.2818267218003434, -0.9910921888942781], [0.610901312172726, -0.6112048017659948, -0.5276456616932477, 0.8518999368366822, -0.9180947593803976, -0.8181883507856329, -0.14667944611724448, -0.30920676777749434, -0.2899725563555824, -0.4073327556885966, 0.872848737680364, 0.5499897395420452, 0.9303193742571909, 0.8949365656405563, 0.25374272609856474, -0.09491201317610409, -0.962825263363031, -0.9576887622102195, -0.993311924918109, 0.6930240726003893, 0.9711272124331707, -0.8348058879602291, 0.35500495658083375, 0.17107351947213933, -0.14254624288006057, 0.9086719913226924, -0.73531775314024, -0.2950488518004928, -0.4520903361498172, -0.9733967173798714, -0.7626794060859032, -0.2292478421311377, 0.8037511613730759, 0.3249754465008634, -0.9084661764099293, 0.9411035769564808, 0.958383830497499, 0.5412738567870585, -0.33804390308923793, -0.036187815496422804, 0.15775385345688786, 0.9499335673403961, 0.8896320565785774, -0.16583209363897078, -0.36797529237068494, 0.6612329359212454, 0.557816031621079, -0.9704371426029672, 0.43098049861704, 0.053744509613557145, 0.24946588032182437, 0.018964821669859022, 0.963666764198738, -0.7548560222122986, 0.2035821786211891, -0.4592378794547811, -0.5200868119520354, 0.8752910565827703, -0.9713683290678035, -0.13823011329292711, -0.2455586761413957, 0.2717177154717525, 0.1769957044057362, 0.5469150147971249, 0.7988528181427685, 0.8977273501883014, 0.6714207442744271, -0.9692875349060919, 0.7460544577464134, 0.6603199865450606, -0.9657956828365892, 0.9318394619175838, 0.3918048501233775, -0.33733353160113744, 0.8769588394447321, 0.6885211879993693, 0.0003081600198451273, -0.29741289342685273, -0.4719461218822969, 0.6371961602703011, -0.4829240532546868], [-0.560543514657275, -0.3218673320385663, -0.38544092058022894, -0.5999457394134882, 0.10951852205424473, -0.6628335098439597, 0.57501804360706, -0.6700014803868051, -0.836538507967945, 0.542734260126831, 0.3167421163654922, -0.8515859807544401, -0.033969350107433405, 0.16330890336398984, -0.5917598210909292, -0.09098638290631156, -0.08102982324477082, 0.9097403920482763, -0.192297130886675, -0.41174582319739805, 0.6201619708712502, 0.49655107689846356, 0.2797812485818827, 0.22263892671229435, 0.8366805012485288, 0.19974204694832953, 0.8343957410403484, 0.5878526248877367, 0.6526471475637661, 0.27152563753009407, -0.2674401301436682, -0.8305159935999351, 0.739315387655658, 0.004873539060987531, -0.1744892050682716, -0.5051351798318342, -0.6488299860884601, -0.04580810288768067, -0.22057608828274256, -0.49550474918887044, -0.7669860121984144, 0.06338235915093415, 0.41391586716314666, 0.0009779390858388748, 0.04173231583809667, -0.9520848176663357, 0.2879142200436442, 0.47324199702739445, 0.5317936398817635, 0.13568630151359296, -0.5289034715377272, -0.27989417893860313, -0.678078763009835, -0.25533380826962726, -0.4343200044331683, -0.04274620410584262, 0.49487379792605823, -0.4100127931676787, 0.20399562272882, 0.930748410716747, 0.823637277830382, -0.15784230254999954, -0.6595992311024859, 0.12334456873498412, 0.13044915341989527, 0.19361676896238667, 0.08448105841315745, 0.694605208734373, 0.7232521707286332, 0.25429071947924853, 0.6907869101373392, 0.21720497770765967, 0.9077604058888822, -0.9955476121328326, -0.10858250058105812, 0.7506807400806086, -0.7941881470382632, -0.9543522585208319, -0.8439692883403758, -0.9600319930695482, 0.9089308501920517], [0.5774542991752019, 0.425641424364513, 0.2544137077660038, -0.030836237773288033, 0.03177141286866747, 0.42375303073093296, 0.8958812967027201, -0.2662113773461843, -0.3630848069592192, 0.4645930384105774, -0.2640611358105256, -0.2644929301151624, -0.1851463376766449, 0.22579659084746195, 0.33651419297927077, -0.7538344857185337, 0.12493712956007785, -0.9310495519469277, 0.6585944670188646, -0.8617322740794604, -0.5200609899737068, -0.4142066560019091, -0.8834795663926325, 0.6494581399234911, -0.24340572522659532, 0.5446373753428062, 0.6803319467758764, -0.20296050339171923, -0.3778052834165644, 0.7626843801928336, 0.20976121526228297, -0.7284421710981779, -0.5875009802712661, -0.010721954856668603, -0.25981178601889954, -0.4903090089037476, 0.31742025180609734, 0.3401927693400717, 0.012773411636016307, -0.19523913442198704, 0.6253101679375399, 0.2562827163221866, -0.48583369494479256, -0.5469187724773863, -0.4591356303703915, -0.7364025824975302, -0.807601111813989, -0.8911258711041325, -0.39729354527021266, -0.6908025982118262, -0.3362964932091874, 0.13269676633287508, -0.9413179195352701, -0.2658306967998232, -0.5406626735982523, 0.42883557688513974, -0.2866494311682459, -0.45103011356785694, -0.875605258198414, -0.7127556287413466, 0.054127869748916035, 0.8927549193049298, -0.9014003038280416, -0.9316990106499552, -0.8107263647489771, -0.906426196198032, -0.7107732733783256, 0.3167172159562437, -0.3018393926370506, 0.7365580709230604, -0.9454631565685205, -0.5397880743798611, -0.5032258286399152, 0.8156891682488421, -0.8310744991122725, 0.6022483098206415, -0.16114814229906105, 0.5293556953949397, -0.24125441580052098, 0.4510358699739614, -0.8469939148052914], [0.19836405229097553, -0.42534605453924157, 0.43270791190666946, 0.9883655216160088, -0.9373661777604292, -0.553369442730292, -0.2890187025486537, 0.638607110357363, 0.22513961317229136, 0.9469887035881182, 0.7585213007140577, -0.14168824299203564, 0.1919131749050489, -0.8564938881351003, 0.38205171565789886, -0.10965690317430687, -0.3439871735458009, 0.17017539557619576, 0.9378975486169918, 0.17420511711941922, -0.8591035584601663, -0.3304146501475078, 0.45010785205532344, -0.7532748511674066, -0.15772418045476577, 0.2579908377925588, 0.8951543357718708, -0.17521153861161776, -0.48926765365958214, -0.42232184350269764, 0.549498483651216, -0.07092951341749099, -0.9637162120728184, -0.706960646402004, -0.9342240309105296, 0.7858438852993272, 0.26463523091905095, 0.6588850691659842, -0.1568066185898518, 0.10712775455177548, -0.9618807889459591, -0.8464511437250812, -0.10534462269151978, -0.4441510885146276, 0.5976881710542397, -0.8234271575321741, -0.8883419869385152, -0.6703168196691558, -0.42836901006215644, -0.882155093791456, 0.15404350260319455, -0.8230815276210575, -0.32725461747931983, -0.12110092724611587, 0.49829106873449236, -0.22234741428118054, 0.0218313566959929, 0.9530952390875629, 0.9271573482657647, -0.8647975919266546, 0.9567802418538507, 0.669056426480447, 0.556478554156663, -0.6618952615778606, 0.9307593491407502, -0.42226680205628053, 0.5493244344200334, 0.2610334655665574, 0.5241343531226945, -0.7912902420578727, 0.36557546959521936, 0.17960121298611442, -0.35204434551948127, 0.8011009891653063, 0.3313516404625645, 0.14036465550338684, -0.3080903570920166, -0.9312843035128597, 0.01200236522744369, 0.9857106760999106, 0.0022138077971813885], [0.2612658017404841, 0.5719967278660869, 0.7586461671373506, -0.7958965383887573, 0.8849039046353375, -0.7195459017617305, -0.32094973656120884, -0.16187201365003068, -0.33133007164075856, 0.8772465969787699, -0.3078727724670909, 0.4526072053741328, 0.7197589832598374, -0.6911094329059473, -0.38970028972357773, 0.46288464213714464, -0.8181492666972077, -0.2507446877480468, 0.04877028211387535, 0.43269721084379964, -0.6095654939075388, -0.19133554865453006, 0.31670725716657033, -0.617896895568635, -0.14916927965303461, 0.08764313491217535, -0.16933199197425908, 0.15116768697747562, 0.26656878875511647, -0.785412699405704, 0.9289222880233823, -0.7151362474967713, -0.346291043705963, 0.35680617313021123, -0.6527672399188353, 0.33326070670600405, -0.048223878245177154, 0.9264456688056406, 0.5425085724625485, -0.7377680333262646, -0.9491285936941118, 0.3124656616689643, -0.04483945992662575, 0.7286258759488982, -0.8895186352265394, 0.38218645026902487, 0.6783942394540783, 0.7409061690555157, 0.5033650202280058, 0.7089919115661629, 0.6526908431712142, 0.985388547032034, -0.028887297229973852, -0.31050520620178657, -0.11091294818336683, 0.9911504079473881, -0.2025632045020147, -0.8630048459796942, 0.9731439064819385, 0.6998534319722163, 0.8309504900095528, -0.7627991532278464, -0.31888118839802826, -0.5219628678773047, -0.4939170982462928, -0.1594440874555183, 0.12494292533173446, 0.7286833116433842, -0.13812668384740023, 0.5265828819601923, 0.6596978373986409, 0.5857425536062404, -0.4281602694360067, -0.5619636434130839, -0.5356507713770577, -0.16759069461392917, 0.5087706213017384, -0.30606294845089654, -0.25934376213330657, 0.039654654198533645, 0.9099111146175469]], "b1": [0.0, 0.0, 0.0, 0.0, 0.0, 0.0, 0.0, 0.0, 0.0, 0.0], "W2": [[0.5661890558666363, -0.874510933779344, 0.422844123028576, 0.4706055667048228, 0.3589358841520933, -0.35185387506017096, 0.7217783867450762, 0.7755555124747349, -0.5576732087556717, -0.6622291345532523], [-0.49669494232430833, -0.5296569004477019, 0.5064044948550492, -0.41186719726397625, 0.4009125805332441, 0.7080159416939957, -0.08921974917816144, 0.9666095281822615, -0.08580567177318055, -0.23724569869488743], [0.7546109684101283, 0.29462217855935924, -0.19223234501906283, -0.17084537358215401, 0.24347215410612355, 0.5295205464401753, 0.18786175577297692, 0.913361403113895, -0.6696146593452508, -0.9494518774381597], [0.3047135732366124, 0.8919436918925874, 0.2840807454447125, -0.9738267474317768, -0.3592717400231604, 0.30914637387454835, -0.2521704617288789, 0.9539687981591165, 0.6200368900449424, 0.7688026748455874], [0.8020359350891371, 0.9529887961568997, -0.29799813395607533, -0.9802518009856744, 0.00699262332162931, 0.18878312620206117, 0.8309896155776377, -0.1937775431168811, -0.9428371285976234, 0.4061367148910251], [0.4859315168939662, -0.049109038915545966, -0.7463558968137323, -0.9863543617364772, -0.6205241954596026, 0.5555441316645522, -0.7067032926999648, 0.9395718663185944, -0.05761582549795241, 0.1132582819307999], [-0.04280946142405195, -0.47391877819179484, 0.817860664187025, 0.6293560647663232, 0.5982895957823384, -0.7281834029380956, 0.2817845984345797, -0.4423094478518277, 0.4918497606330523, -0.02653610001917084], [-0.9026807404806245, -0.06718877545208635, 0.7287886615598727, 0.5045669229369634, -0.210466470063009, -0.5203279181723579, 0.9745541244508109, -0.9116938430384578, 0.38659441576585873, -0.11514530239426057], [0.8044449337029009, 0.5357868212069075, -0.9568974713971845, -0.9644743109516847, -0.5636604120457203, -0.40180962043818913, -0.1532579723613403, 0.48325737698796445, -0.856641665653636, 0.31782016473551566], [0.8359718783209964, -0.03711971203368325, -0.29115262728885605, -0.16315382372749876, 0.9265732323745135, 0.6645545457117845, 0.725516578667396, -0.032441543347570656, -0.8385648468917304, 0.3524272861405793], [-0.43645098830663054, 0.14415190820403523, -0.27423258052283095, 0.17693894938264965, -0.17211685848351577, -0.15671225046236437, 0.08184485363156169, -0.9461245861786314, -0.3716937615283935, 0.07783148668029383], [0.6203698419325843, -0.787128036514136, 0.9357803522122081, -0.6527110081652907, -0.4359443266551608, 0.4820835109759287, 0.03818312181945016, -0.4597411354999794, 0.07319490887601932, -0.043426404093559245], [0.9735475907339959, -0.09008718195213095, 0.1304922750705788, 0.5478692840009356, -0.6563847524854933, 0.9931646236745313, 0.7418203357629609, 0.1096722144685982, 0.22177484515564316, -0.6055296739362097], [0.9708213207120993, -0.5567692958080195, -0.009358366577792987, 0.730246091123339, -0.3399946086070764, 0.9247525612802447, -0.3220458107574853, 0.04444793235899458, 0.3349573109468664, 0.09523153459312916], [0.3526535185794446, -0.576613181519263, -0.3905324572344395, -0.48344509880407216, -0.04093093392042868, 0.5946298659774869, -0.6610864224122694, -0.5963356988795934, 0.6841315698731982, 0.527681435414199], [0.4547055782972096, -0.05197094800498281, -0.9555174546381098, 0.43458786368542346, 0.9727498956247134, -0.3798716754567757, 0.529049357590559, -0.2621055524972067, 0.1881055593576071, 0.9416573692571439], [-0.4979009816375868, 0.11143032028520583, 0.34831529551742735, 0.06904405397865188, 0.6474621133954392, -0.6103238575661791, -0.037037916094375234, 0.3791490476522126, 0.3613138761580843, -0.02939774868231959], [-0.7756156955905131, 0.1646090091495378, -0.7568485080500946, 0.4528137702003612, 0.08355928227899478, 0.6971163643021772, -0.553554736038073, -0.10675332054513942, 0.4707696509003767, -0.9832075774473645], [0.06906353365477269, 0.9204505801232863, 0.8929977176637229, 0.6718893285559302, -0.44294408145526787, 0.651930730880516, 0.07793272924077121, 0.3503003209361104, 0.04674512716117163, -0.3373957974217099], [-0.9894884359849527, 0.04029712000999863, 0.6919125393336181, 0.4704781709312311, -0.27954868723345294, 0.5804327035134553, -0.288709884051207, -0.551044339619589, -0.9484653154422324, -0.7407346094926133], [0.9529348478013404, -0.050295000716715776, 0.8631212237253338, 0.019251743320505055, -0.6324314807746796, -0.9775912625011913, 0.6085733690223705, 0.8647278473263944, 0.07456044203697232, 0.32627360064095057], [0.8606416843643538, 0.7818433868064327, 0.7165215307079136, -0.11988006795215833, 0.5297752328507164, -0.4334213783773124, 0.06457163360967133, 0.7520973983348176, -0.975112609418475, -0.007490558060788466], [-0.4900475056957818, 0.8130356960789265, 0.04741824235152148, -0.12268041829412035, 0.00892072366356289, 0.3565557170442355, -0.15996487684666527, 0.4223047420646209, -0.4044602050606301, -0.15615248684309369], [0.692526977468408, -0.34517068543714124, -0.9658197844128513, 0.8058559908866882, 0.8750380030894396, 0.9557429922281979, 0.09558589001167528, 0.3299396656091509, -0.06859416366721827, 0.20022095387761407], [0.9891579580935035, -0.7240672129113874, 0.19301826198733196, -0.7378798926424526, 0.350624413759713, 0.33465881839948786, 0.3130456476902197, -0.7277063698111754, -0.9333521585609064, 0.5346708108803575], [0.5294290212896955, 0.5838611451597844, -0.38491286494328825, -0.5334331606625429, -0.8487808578048133, -0.8084789777547632, 0.2625378010595889, -0.608597757309189, 0.1349474969792508, 0.39557262921757697], [-0.8442765455410233, 0.5122378520100148, -0.5950030828967796, -0.3520966660414515, -0.1671613690059115, -0.7401698464180095, 0.5677101291085584, -0.5432541093535286, -0.111117098419095, 0.7244725238311371], [0.34703637666134224, -0.15628128462105018, -0.6443319343450704, 0.9348492656674219, 0.5186645692328904, -0.1543840172741715, -0.4374098642757105, -0.8128004525646766, -0.6274802631268575, 0.3009489001439778], [-0.21312713122188742, 0.9955313037986653, -0.886219235926077, -0.09300027826209378, -0.9048427838174469, 0.7452914297510245, -0.7485358533946003, 0.09887124077121068, 0.22898613941704538, -0.6818709335918192], [-0.84011301850459, -0.44191096634061444, 0.8787012043195035, -0.68242991097206, 0.3259389652647673, 0.346225850830989, -0.46570185753794946, -0.5837015498788223, -0.6575789898148676, 0.789388243268029], [-0.21711506392113722, -0.4635437022713216, 0.08958292111453958, -0.33976172724764164, 0.8639670208624859, -0.28004300502905144, -0.41278323432821584, 0.6579365765800274, 0.4711038288835465, 0.17142017103332363], [0.9842374040080155, 0.749783536245128, 0.20786670971127186, 0.13214779318395475, 0.47311515100941093, 0.6458064724833137, -0.06597489553351399, -0.25231996985871774, 0.5451853229627417, -0.9997855218895249], [-0.44178870243121593, -0.13914770327255432, 0.9867576755737997, -0.03503081746281733, -0.4308863744936724, 0.8206797793328948, -0.3415510529412509, 0.784770625952012, 0.8388302180998639, -0.3833606695600389], [-0.8917883129882704, -0.3871395172556491, 0.6846777797880756, 0.4992662334082578, 0.771467784277774, -0.39528323651929265, -0.8235855207161482, -0.04601328802993421, -0.08974583127190505, 0.3416731859472337], [0.4653538991707167, 0.5949413339288636, -0.7875358760324733, 0.0029351731622495603, 0.9676235809845755, 0.10354235920164467, -0.3694655104235165, 0.8668768502496036, 0.6192296612887394, 0.8442471237611022], [0.3790757046596265, -0.19558114034544394, 0.682201346464044, -0.9420689909941768, 0.48827847001913427, 0.4901298657547153, -0.31145629896867844, -0.6401501630008377, -0.1386588617775406, -0.766054956432058], [0.3655701933680877, -0.6868588695559823, -0.8430393290350315, -0.05298402931290336, -0.8371885053047585, -0.03269694217559782, 0.7512859949921971, -0.25059148654727736, -0.5790498351198505, 0.562776640641536], [-0.7490340956999741, 0.135794228998374, 0.4599352934371568, 0.5867857046383811, 0.09889099356563325, -0.5398181560442321, 0.4320345930152212, 0.20084914592776926, 0.7233442384226692, 0.2904468439368708], [0.9882616868822651, 0.1439086905921898, -0.5946983235011547, -0.5798910088088642, -0.6121028149282728, 0.2443007002802604, 0.10909239471534993, -0.5011225463082993, -0.8147512647866866, 0.2297648978339084], [-0.06413084347402176, 0.8115790137765801, 0.4887410413266924, 0.12748006595321293, -0.19189012456771537, 0.2522437960191517, -0.03843478715339277, -0.7057031826738196, -0.49142464266527996, 0.2815870187010221], [0.29680435549313144, -0.7991956774083429, -0.2391305801786583, -0.2720156875120834, 0.8010104423739202, -0.8633281901380903, -0.8152967975993233, -0.5873878491725344, 0.35062599320449506, 0.42361503009044155], [0.6132796161427905, -0.2527764151213805, 0.8366948163040664, -0.9224109549315589, 0.29902387766663274, 0.4593293593800698, -0.12505626768897105, -0.3612602209517155, -0.113129290689987, 0.8245932973349961], [-0.41053511725179637, -0.09682095830272264, 0.5590823474091859, -0.9054584243160728, -0.5826288241822173, -0.9715720995417796, -0.8850428317283203, 0.4519319298100819, 0.7545098079910111, 0.794729324838618], [0.6233905552390411, 0.5035353151943187, -0.09694885886776672, 0.15785607019859338, -0.10142021770288068, -0.4692962665079945, 0.7365363033488141, 0.114462702184426, 0.3371869180475937, -0.49754224180738316], [-0.6654969400695798, 0.9631537335874185, -0.9750897931725935, -0.9523686103425839, 0.5079105146837157, 0.0878733716068647, -0.21436727920068455, 0.06278669246280466, 0.4262655043546151, -0.4494366257834479], [0.6848430122741342, -0.12239274260500022, 0.1615402398823742, -0.7489504867609671, 0.09923072455675075, 0.5346315839723488, -0.28528835253519724, -0.48054823292944326, -0.5741035502798824, -0.7024247649070281], [-0.9220240557512132, -0.8820594813774381, 0.637804591093935, 0.13922155324281915, 0.4984818834474205, 0.5240467666673931, -0.2046675687503574, 0.1576356012145761, 0.978889641129197, 0.8199866480278117], [0.02397038074162583, 0.8618711189124613, -0.851685366873564, 0.9259363018019686, 0.6872992905267135, 0.1933547003666516, 0.05579219256099255, -0.7107086906893156, -0.920928189234391, -0.6966728274448211], [0.9076108927185544, -0.24162884569366083, 0.8412176624921137, -0.3050250892872537, 0.04760600898364897, -0.0996505037096116, 0.3403215390105274, 0.19540503348956273, -0.5995322256751408, 0.8545360918473561], [-0.22637532269486793, -0.39981576970265786, 0.573457864976014, 0.7199329470253983, -0.846965433881625, 0.6729839213594075, -0.6767043594374171, 0.20882547717497535, -0.6739452373148571, 0.2450825368016767], [0.9853097604678724, 0.03753701935585729, 0.75904882747441, -0.02682563609221922, -0.6763190883257819, 0.4659127450447045, -0.023896381973011138, -0.39740213855051265, -0.42413509850181264, -0.30280288367807673], [0.8795185530613747, 0.6296696306794201, 0.6134101886325567, 0.8296489324832437, 0.34646265695007794, 0.6445373063390318, -0.042924373600798704, -0.354730783826541, 0.19942511045873323, -0.27170859517947754], [0.5367294333206345, 0.9672663076079429, -0.9025899509957804, 0.9969385874938783, -0.2879603404539268, 0.45349961709139963, -0.19803358434592178, 0.5716610454286177, 0.9564604249083486, -0.7795579008938682], [0.9367856721326413, -0.8323175685041679, -0.7091563330018058, 0.367380939684254, 0.2155698187701951, 0.4277734286948074, -0.870433651237275, 0.4067295327143017, -0.28642373864113013, 0.5392193498340372], [-0.5562474187079853, -0.853919381233968, -0.6665655437706786, -0.7794667152404544, 0.5932027759753125, -0.5749018889792521, 0.018486605788677224, -0.7105251586104078, 0.49384382337741206, -0.0033318731648919186], [0.45456721324020144, -0.3644454395007237, -0.25773494991748924, -0.5200478460127953, 0.787834699538783, -0.3063777332580899, 0.3197003540791221, -0.4573342372506666, 0.5558611370185949, -0.28548963117297643], [0.42375823619900754, -0.2827092457648328, 0.16051679955643494, -0.09913093850373711, 0.9641789587989682, -0.9892625491922609, 0.1415232216219775, 0.7117728122959273, 0.3669451610287573, 0.05397725241069651], [0.30937440769932256, 0.3106382768573863, -0.5659278843833453, 0.3080415100281102, 0.6809594169222013, -0.2845412873355788, -0.2905514383217582, 0.3266225656733841, 0.7124150568509735, 0.817350202795526], [0.9987886724461927, 0.264381876583931, -0.8040072322659502, -0.2510052393763351, -0.16709985700637753, 0.7277053559303757, -0.16830471465754027, 0.455690504330017, -0.7166065012213725, 0.41168767804585094], [-0.7291463369041684, -0.02818057023829712, -0.8779743833405116, 0.7800894925485962, 0.0019823924033521845, -0.17495802565678042, 0.6289661129535449, 0.3002556943067758, 0.9554733066686285, 0.4780775468605918], [0.18233138972387253, 0.22110155800920794, -0.3861528898563491, 0.508896571863058, 0.39653201313585185, -0.9980955041459838, 0.29708419169196354, -0.9982106635787726, 0.016716950249308526, 0.8336292110390582], [0.730581385185306, -0.4101753250739275, 0.8960956495337542, -0.09058634018428502, 0.9589312523389593, -0.7156896871619722, -0.9548428704884324, 0.4983966783012861, -0.4568874639848688, -0.7055503580158375], [0.7181443999547803, -0.7443470636550538, -0.3713647655029024, -0.8270600964811923, 0.884910297429548, -0.740003238640722, -0.8422236047091491, -0.637056710800046, 0.44992946025565694, 0.8259969821510811], [0.8329738011580357, -0.7926429108660222, -0.7381443386798059, 0.2030785154489978, -0.12822101462066948, -0.5036444654445351, 0.6084337024043698, -0.9984563889007558, -0.08122794314364179, -0.5883211943044218], [-0.9392386003110405, -0.8924171296583479, 0.12259374776884191, -0.7674426378028989, -0.72753934745785, 0.6541968127960502, -0.4674443287058605, 0.08953532456787161, 0.849783815647781, 0.7769815837398497], [-0.8712086766542382, -0.6124428988381292, 0.34049756818731125, -0.22897057461019132, 0.3371482565569657, -0.9461891308577679, -0.2277027707315804, 0.14322898694750896, 0.794290561187184, -0.10652688542902489], [0.3329884385353201, -0.8926807679476472, -0.7490452541801005, 0.5316022066307899, -0.6367288046488528, 0.8111479563415664, -0.011701832820650848, 0.8505585729454783, -0.4924629240232652, -0.16320373522987897], [-0.741789184729198, 0.008284346760971673, -0.8565102845667278, -0.9613937921188, 0.8271192158168637, -0.7256643822996505, -0.32563723644598674, -0.5095535438152368, 0.2751783547391562, -0.5233574696239223], [-0.47075375384972795, 0.8441780041691946, -0.5069005043026988, 0.021194750247979233, 0.08333480109366564, 0.28313811888284834, 0.51923219353941, -0.7420671531498344, 0.6609858522795964, 0.17551221772682535], [-0.5154760978803516, 0.37190896045923805, 0.629185276050813, -0.9432447265705555, -0.5115332865490465, -0.3113235179115805, -0.014654828163918276, 0.2578254603028862, -0.5575324562448383, 0.22925827336942772], [0.5579739352102671, 0.11769944656262998, 0.8506967941268004, -0.6492752044659402, 0.7962186491220047, -0.16845352555338167, 0.5772635398650678, -0.3500058626261604, -0.6442523603276178, -0.9645544745335213], [0.6568760796161297, -0.23056825649061352, -0.2639086738087584, -0.6901370263979041, -0.6807771209428803, 0.0571153340092283, 0.4959220282524883, 0.19660828185943813, 0.40282097473197687, 0.2935383632659536], [0.6860176910032445, 0.690521026226335, 0.38361414812269445, -0.7277351759468849, 0.3329895705711541, 0.5551271748393509, 0.3280770599256515, -0.1306298535199275, 0.2315433274566614, 0.840771242573717], [0.03524397865973694, -0.2192088228758189, -0.7858506857656169, -0.6691773180272522, -0.6395878844745391, -0.9060889156355707, 0.3137392714311853, -0.891301158001242, 0.11795536869533563, 0.9304339272271949], [-0.5727831398848469, -0.8862281746263474, 0.05846812251400779, 0.1409396862406167, -0.9328236523074942, -0.35086731623431433, 0.8909130992701697, 0.38200936151919396, 0.11382279771925918, 0.6496551229718674], [-0.032412624774749155, -0.7535232957321756, 0.4490851848275068, -0.002490279188716915, 0.8481772250102098, 0.7497213609445559, -0.29131156169881844, 0.3750105079426269, -0.32811521578490455, 0.5714163974324782], [0.5989609872103994, 0.9184626915646084, 0.3940179681157747, -0.9550768521414079, -0.5960713030692779, 0.3830195621123289, 0.35613150597052545, -0.018957648819832418, 0.3823809459114196, -0.46253652599537864], [-0.8865530703496747, -0.04937497587721884, -0.9359035881840179, -0.9607979492541978, -0.6211391529615815, 0.9850889233504732, -0.5063648625680985, -0.27578125504555384, 0.26829389045092245, -0.8065275617281011], [-0.15386699852485464, 0.6036054263533293, 0.9626302307782941, -0.5602531231907759, -0.9386178936362508, 0.014415628411558634, 0.9604620157147052, 0.12227518182870778, -0.033809690471540144, 0.23843677280473408], [-0.31757898975612897, -0.7572941337867798, -0.744118386916927, -0.4572017862020543, 0.2970628072546915, 0.8610603084111284, -0.31385937645494133, 0.2927184479396836, 0.6633194173119896, 0.26932083361864234], [0.9021916119775322, -0.7870549344872562, -0.9413994352237041, 0.12889193250931186, 0.5927435929611526, -0.38951349149686765, -0.9882622279598061, 0.18209622301443873, 0.5584576989320496, 0.23620910029682207]], "b2": [0.0, 0.0, 0.0, 0.0, 0.0, 0.0, 0.0, 0.0, 0.0, 0.0, 0.0, 0.0, 0.0, 0.0, 0.0, 0.0, 0.0, 0.0, 0.0, 0.0, 0.0, 0.0, 0.0, 0.0, 0.0, 0.0, 0.0, 0.0, 0.0, 0.0, 0.0, 0.0, 0.0, 0.0, 0.0, 0.0, 0.0, 0.0, 0.0, 0.0, 0.0, 0.0, 0.0, 0.0, 0.0, 0.0, 0.0, 0.0, 0.0, 0.0, 0.0, 0.0, 0.0, 0.0, 0.0, 0.0, 0.0, 0.0, 0.0, 0.0, 0.0, 0.0, 0.0, 0.0, 0.0, 0.0, 0.0, 0.0, 0.0, 0.0, 0.0, 0.0, 0.0, 0.0, 0.0, 0.0, 0.0, 0.0, 0.0, 0.0, 0.0]}
